6 100
SnakesonaPlane -0.002714 0.001566 -0.001020 0.000513 -0.000440 0.004240 0.002608 -0.002431 0.004094 0.001672 -0.004461 0.003145 0.004740 0.001101 0.003454 -0.002343 -0.001815 0.004680 0.004895 0.002714 0.003860 0.002375 0.000209 0.001755 0.002469 0.001269 0.000141 0.000772 0.004413 -0.002754 0.000641 0.002011 -0.000742 0.001766 -0.000934 -0.003324 0.000291 0.000408 -0.000979 0.004950 0.002704 0.004188 -0.000392 0.003953 0.002491 -0.001244 -0.000191 0.000271 -0.004185 -0.003526 -0.001322 -0.000676 0.003319 0.000335 0.004396 -0.003838 -0.000167 0.001327 0.003081 -0.001947 -0.002876 -0.001188 -0.001555 0.004934 -0.001675 0.002904 -0.002991 0.004758 0.004126 -0.003156 -0.004611 0.003416 -0.001675 0.003309 0.001650 -0.002933 0.000999 0.001158 -0.001521 -0.001336 0.000746 -0.004736 -0.003957 -0.002692 0.003853 0.000492 0.002823 0.004864 -0.004702 0.000578 0.004701 0.000523 -0.001675 -0.002554 -0.003372 0.003899 -0.000606 -0.001682 0.000259 0.000314
SupermanReturns 0.002493 0.001538 0.000243 -0.000899 0.004962 -0.004790 0.004495 -0.002261 0.002044 -0.002443 -0.003206 -0.001314 0.000903 0.003459 0.004191 -0.003044 0.004525 -0.002194 0.001077 -0.000223 -0.002064 0.002289 0.004637 -0.001947 -0.000431 0.002369 0.003598 -0.000623 -0.004134 0.001580 0.001437 0.003395 -0.004579 -0.001667 -0.000053 0.004403 0.003368 0.003896 0.001654 0.004719 -0.001894 -0.001070 -0.002998 0.003538 0.004152 -0.002182 0.002981 0.001367 0.004335 -0.001518 0.001147 0.000933 -0.004189 -0.002159 0.003627 -0.001866 0.003494 0.003199 -0.004071 -0.004693 -0.000698 0.004709 -0.003225 0.003582 -0.004921 0.003148 0.002741 0.000380 -0.003856 0.002668 -0.002370 -0.004527 0.001939 -0.003545 0.003998 -0.000106 -0.003819 0.000817 0.002470 0.002747 -0.004137 -0.003384 -0.000531 -0.003594 -0.002619 -0.000311 -0.000679 0.004842 -0.003261 -0.001249 0.000881 0.000999 0.003194 0.003861 0.002800 0.004057 0.001897 -0.002679 0.001265 -0.000832
You,MeandDupree 0.002915 -0.003129 0.000839 -0.001097 -0.001042 0.000174 0.003538 -0.001566 -0.000974 -0.001218 -0.003942 -0.000940 -0.002891 -0.000779 0.002952 0.003199 0.001859 0.000010 0.003631 -0.001185 -0.000917 -0.004350 0.000041 0.000072 -0.000795 0.002867 0.004560 -0.001782 -0.001442 -0.000060 0.004657 0.002492 0.002508 -0.003585 -0.000169 -0.000454 -0.003131 0.002765 0.002644 0.004164 -0.001304 0.001046 -0.001836 -0.000337 0.004665 0.002256 0.002957 0.000556 0.004319 0.001276 -0.004894 0.003379 -0.003843 0.000375 -0.004738 0.001801 0.001687 0.002604 -0.004512 -0.002108 0.002760 0.004675 -0.004875 -0.000289 -0.000832 0.000769 -0.004178 -0.004661 -0.004395 -0.004062 -0.001193 0.003145 0.002560 0.000407 0.000597 -0.002446 0.002022 -0.001136 -0.000191 -0.002977 -0.000282 0.001875 -0.001359 -0.002065 0.003597 -0.000349 0.004591 -0.002994 -0.000965 -0.001204 0.003448 0.002398 -0.001088 0.000081 0.004118 -0.002247 -0.003386 0.003546 0.001976 0.004378
TheNightListener -0.001616 -0.001996 0.004102 0.003305 0.002954 -0.001775 0.001130 0.001068 0.004540 0.004478 0.000422 -0.000438 -0.004021 -0.000202 -0.002709 -0.004806 -0.002233 -0.001452 0.004126 -0.003211 -0.000304 -0.004438 0.004441 0.003440 -0.000165 0.001082 -0.003204 -0.004151 0.000360 0.001724 -0.001095 -0.000577 0.004789 0.000859 0.004755 -0.003315 0.001803 -0.003355 -0.001646 0.002123 -0.003892 0.000137 -0.004666 -0.001304 0.001188 -0.003455 0.000415 -0.004155 -0.001376 -0.000607 -0.003166 -0.003028 0.004875 -0.004463 -0.003360 0.004478 -0.004082 0.004357 -0.002917 0.000575 0.004882 0.001251 0.000815 0.003858 -0.000451 0.000780 0.003068 -0.000941 0.002541 0.003999 -0.002742 -0.000420 0.003343 0.002283 -0.003798 0.002716 0.000820 -0.000139 -0.002198 0.003505 -0.001029 -0.001013 -0.003314 0.000604 -0.003840 -0.001351 -0.001970 0.001402 0.004000 0.003316 -0.002538 -0.000926 -0.002073 -0.000416 -0.004987 -0.003729 0.000622 0.000209 -0.004661 0.000755
LadyintheWater -0.004659 -0.004446 -0.000591 0.001772 -0.000935 0.003668 -0.001170 0.001641 0.002310 -0.001052 0.004609 0.004902 -0.002291 0.004339 0.001714 -0.004351 -0.000358 0.004357 0.000199 0.000418 -0.004643 -0.000943 -0.002644 -0.002322 0.004846 0.003763 -0.000686 0.004242 -0.003217 -0.002826 -0.003019 0.001930 0.000006 -0.000542 -0.003043 -0.002639 -0.004784 0.001883 0.002402 0.000381 -0.000891 -0.003202 -0.003503 -0.002346 0.000110 -0.001777 0.000164 0.003578 0.000445 0.002508 -0.002955 -0.004469 -0.002829 0.004124 0.002842 -0.004535 -0.004284 -0.001206 -0.002483 -0.003017 -0.002562 -0.001105 -0.000630 0.002504 -0.001969 -0.003597 -0.003047 0.000873 0.002644 0.002019 0.002646 0.003308 0.001339 0.001340 -0.001106 -0.001731 0.001436 0.001974 -0.000886 -0.001981 -0.002604 -0.003016 -0.003638 -0.004405 -0.002730 -0.001529 0.000824 -0.002349 0.001623 0.001522 0.000521 -0.001184 0.000708 -0.002600 0.000701 0.003630 -0.001191 -0.004628 -0.000247 0.003082
JustMyLuck 0.000339 -0.003183 0.004149 -0.003365 -0.002795 -0.002884 0.004777 -0.001812 0.000875 -0.000800 0.002745 0.000139 -0.004817 0.004094 0.002143 0.001216 -0.003708 -0.003375 -0.004870 0.002168 -0.004521 0.003434 0.003801 0.000970 0.003303 0.000262 -0.001671 0.002695 0.004654 0.001846 0.001185 0.003617 0.002029 -0.004902 0.001798 -0.002069 -0.000572 -0.003512 0.003362 -0.003039 0.003520 -0.002413 -0.000374 -0.003254 -0.001187 -0.003455 0.003051 -0.004819 0.003086 0.003423 0.003453 -0.003802 0.003564 -0.002224 -0.001544 0.002656 -0.000709 -0.004460 -0.002616 0.004617 0.001680 -0.003614 -0.003078 -0.001840 -0.000856 -0.001752 0.000701 0.003488 -0.002342 0.002356 0.004551 -0.000018 -0.000951 -0.003775 -0.001561 0.004608 0.003513 -0.001412 0.002066 -0.004423 -0.003630 -0.003951 -0.003443 -0.000412 -0.000286 -0.000323 -0.003474 -0.000144 0.001773 -0.003167 -0.002855 0.002867 0.004087 0.003091 -0.003061 -0.002692 0.001311 -0.001038 -0.003407 -0.001955
